digraph Tree {
node [shape=box, style="filled", color="black", fontname="helvetica"] ;
edge [fontname="helvetica"] ;
0 [label="Na_to_K <= 14.829\ngini = 0.701\nsamples = 150\nvalue = [18, 13, 13, 38, 68]\nclass = drugY", fillcolor="#f8caee"] ;
1 [label="Age <= 69.5\ngini = 0.687\nsamples = 82\nvalue = [18, 13, 13, 38, 0]\nclass = drugX", fillcolor="#c2c1f7"] ;
0 -> 1 [labeldistance=2.5, labelangle=45, headlabel="True"] ;
2 [label="Na_to_K <= 9.459\ngini = 0.675\nsamples = 78\nvalue = [14, 13, 13, 38, 0]\nclass = drugX", fillcolor="#b6b5f5"] ;
1 -> 2 ;
3 [label="BP_LOW <= 0.5\ngini = 0.432\nsamples = 19\nvalue = [2, 1, 2, 14, 0]\nclass = drugX", fillcolor="#7573ed"] ;
2 -> 3 ;
4 [label="Age <= 64.5\ngini = 0.153\nsamples = 12\nvalue = [0, 1, 0, 11, 0]\nclass = drugX", fillcolor="#4e4be7"] ;
3 -> 4 ;
5 [label="gini = 0.0\nsamples = 11\nvalue = [0, 0, 0, 11, 0]\nclass = drugX", fillcolor="#3c39e5"] ;
4 -> 5 ;
6 [label="gini = 0.0\nsamples = 1\nvalue = [0, 1, 0, 0, 0]\nclass = drugB", fillcolor="#7be539"] ;
4 -> 6 ;
7 [label="Age <= 34.5\ngini = 0.653\nsamples = 7\nvalue = [2, 0, 2, 3, 0]\nclass = drugX", fillcolor="#d8d7fa"] ;
3 -> 7 ;
8 [label="Sex <= 0.5\ngini = 0.444\nsamples = 3\nvalue = [2, 0, 1, 0, 0]\nclass = drugA", fillcolor="#f2c09c"] ;
7 -> 8 ;
9 [label="gini = 0.0\nsamples = 1\nvalue = [1, 0, 0, 0, 0]\nclass = drugA", fillcolor="#e58139"] ;
8 -> 9 ;
10 [label="Age <= 22.5\ngini = 0.5\nsamples = 2\nvalue = [1, 0, 1, 0, 0]\nclass = drugA", fillcolor="#ffffff"] ;
8 -> 10 ;
11 [label="gini = 0.0\nsamples = 1\nvalue = [1, 0, 0, 0, 0]\nclass = drugA", fillcolor="#e58139"] ;
10 -> 11 ;
12 [label="gini = 0.0\nsamples = 1\nvalue = [0, 0, 1, 0, 0]\nclass = drugC", fillcolor="#39e5c5"] ;
10 -> 12 ;
13 [label="Age <= 56.0\ngini = 0.375\nsamples = 4\nvalue = [0, 0, 1, 3, 0]\nclass = drugX", fillcolor="#7d7bee"] ;
7 -> 13 ;
14 [label="gini = 0.0\nsamples = 3\nvalue = [0, 0, 0, 3, 0]\nclass = drugX", fillcolor="#3c39e5"] ;
13 -> 14 ;
15 [label="gini = 0.0\nsamples = 1\nvalue = [0, 0, 1, 0, 0]\nclass = drugC", fillcolor="#39e5c5"] ;
13 -> 15 ;
16 [label="Age <= 40.5\ngini = 0.717\nsamples = 59\nvalue = [12, 12, 11, 24, 0]\nclass = drugX", fillcolor="#cdccf8"] ;
2 -> 16 ;
17 [label="Age <= 36.5\ngini = 0.721\nsamples = 29\nvalue = [9, 8, 3, 9, 0]\nclass = drugA", fillcolor="#ffffff"] ;
16 -> 17 ;
18 [label="Na_to_K <= 12.301\ngini = 0.694\nsamples = 22\nvalue = [4, 8, 2, 8, 0]\nclass = drugB", fillcolor="#ffffff"] ;
17 -> 18 ;
19 [label="Age <= 19.5\ngini = 0.633\nsamples = 16\nvalue = [2, 5, 1, 8, 0]\nclass = drugX", fillcolor="#cac9f8"] ;
18 -> 19 ;
20 [label="Age <= 17.5\ngini = 0.5\nsamples = 2\nvalue = [1, 0, 1, 0, 0]\nclass = drugA", fillcolor="#ffffff"] ;
19 -> 20 ;
21 [label="gini = 0.0\nsamples = 1\nvalue = [0, 0, 1, 0, 0]\nclass = drugC", fillcolor="#39e5c5"] ;
20 -> 21 ;
22 [label="gini = 0.0\nsamples = 1\nvalue = [1, 0, 0, 0, 0]\nclass = drugA", fillcolor="#e58139"] ;
20 -> 22 ;
23 [label="Na_to_K <= 9.495\ngini = 0.541\nsamples = 14\nvalue = [1, 5, 0, 8, 0]\nclass = drugX", fillcolor="#bebdf6"] ;
19 -> 23 ;
24 [label="gini = 0.0\nsamples = 1\nvalue = [1, 0, 0, 0, 0]\nclass = drugA", fillcolor="#e58139"] ;
23 -> 24 ;
25 [label="BP_LOW <= 0.5\ngini = 0.473\nsamples = 13\nvalue = [0, 5, 0, 8, 0]\nclass = drugX", fillcolor="#b6b5f5"] ;
23 -> 25 ;
26 [label="Na_to_K <= 11.177\ngini = 0.496\nsamples = 11\nvalue = [0, 5, 0, 6, 0]\nclass = drugX", fillcolor="#dedefb"] ;
25 -> 26 ;
27 [label="Age <= 27.0\ngini = 0.444\nsamples = 9\nvalue = [0, 3, 0, 6, 0]\nclass = drugX", fillcolor="#9e9cf2"] ;
26 -> 27 ;
28 [label="gini = 0.0\nsamples = 4\nvalue = [0, 0, 0, 4, 0]\nclass = drugX", fillcolor="#3c39e5"] ;
27 -> 28 ;
29 [label="Age <= 31.0\ngini = 0.48\nsamples = 5\nvalue = [0, 3, 0, 2, 0]\nclass = drugB", fillcolor="#d3f6bd"] ;
27 -> 29 ;
30 [label="gini = 0.0\nsamples = 2\nvalue = [0, 2, 0, 0, 0]\nclass = drugB", fillcolor="#7be539"] ;
29 -> 30 ;
31 [label="Cholesterol <= 0.5\ngini = 0.444\nsamples = 3\nvalue = [0, 1, 0, 2, 0]\nclass = drugX", fillcolor="#9e9cf2"] ;
29 -> 31 ;
32 [label="Na_to_K <= 9.852\ngini = 0.5\nsamples = 2\nvalue = [0, 1, 0, 1, 0]\nclass = drugB", fillcolor="#ffffff"] ;
31 -> 32 ;
33 [label="gini = 0.0\nsamples = 1\nvalue = [0, 0, 0, 1, 0]\nclass = drugX", fillcolor="#3c39e5"] ;
32 -> 33 ;
34 [label="gini = 0.0\nsamples = 1\nvalue = [0, 1, 0, 0, 0]\nclass = drugB", fillcolor="#7be539"] ;
32 -> 34 ;
35 [label="gini = 0.0\nsamples = 1\nvalue = [0, 0, 0, 1, 0]\nclass = drugX", fillcolor="#3c39e5"] ;
31 -> 35 ;
36 [label="gini = 0.0\nsamples = 2\nvalue = [0, 2, 0, 0, 0]\nclass = drugB", fillcolor="#7be539"] ;
26 -> 36 ;
37 [label="gini = 0.0\nsamples = 2\nvalue = [0, 0, 0, 2, 0]\nclass = drugX", fillcolor="#3c39e5"] ;
25 -> 37 ;
38 [label="Age <= 27.0\ngini = 0.611\nsamples = 6\nvalue = [2, 3, 1, 0, 0]\nclass = drugB", fillcolor="#def8ce"] ;
18 -> 38 ;
39 [label="Cholesterol <= 0.5\ngini = 0.375\nsamples = 4\nvalue = [0, 3, 1, 0, 0]\nclass = drugB", fillcolor="#a7ee7b"] ;
38 -> 39 ;
40 [label="Age <= 23.5\ngini = 0.5\nsamples = 2\nvalue = [0, 1, 1, 0, 0]\nclass = drugB", fillcolor="#ffffff"] ;
39 -> 40 ;
41 [label="gini = 0.0\nsamples = 1\nvalue = [0, 0, 1, 0, 0]\nclass = drugC", fillcolor="#39e5c5"] ;
40 -> 41 ;
42 [label="gini = 0.0\nsamples = 1\nvalue = [0, 1, 0, 0, 0]\nclass = drugB", fillcolor="#7be539"] ;
40 -> 42 ;
43 [label="gini = 0.0\nsamples = 2\nvalue = [0, 2, 0, 0, 0]\nclass = drugB", fillcolor="#7be539"] ;
39 -> 43 ;
44 [label="gini = 0.0\nsamples = 2\nvalue = [2, 0, 0, 0, 0]\nclass = drugA", fillcolor="#e58139"] ;
38 -> 44 ;
45 [label="Na_to_K <= 13.527\ngini = 0.449\nsamples = 7\nvalue = [5, 0, 1, 1, 0]\nclass = drugA", fillcolor="#eeab7b"] ;
17 -> 45 ;
46 [label="BP_HIGH <= 0.5\ngini = 0.278\nsamples = 6\nvalue = [5, 0, 0, 1, 0]\nclass = drugA", fillcolor="#ea9a61"] ;
45 -> 46 ;
47 [label="gini = 0.0\nsamples = 4\nvalue = [4, 0, 0, 0, 0]\nclass = drugA", fillcolor="#e58139"] ;
46 -> 47 ;
48 [label="Cholesterol <= 0.5\ngini = 0.5\nsamples = 2\nvalue = [1, 0, 0, 1, 0]\nclass = drugA", fillcolor="#ffffff"] ;
46 -> 48 ;
49 [label="gini = 0.0\nsamples = 1\nvalue = [0, 0, 0, 1, 0]\nclass = drugX", fillcolor="#3c39e5"] ;
48 -> 49 ;
50 [label="gini = 0.0\nsamples = 1\nvalue = [1, 0, 0, 0, 0]\nclass = drugA", fillcolor="#e58139"] ;
48 -> 50 ;
51 [label="gini = 0.0\nsamples = 1\nvalue = [0, 0, 1, 0, 0]\nclass = drugC", fillcolor="#39e5c5"] ;
45 -> 51 ;
52 [label="Na_to_K <= 11.86\ngini = 0.651\nsamples = 30\nvalue = [3, 4, 8, 15, 0]\nclass = drugX", fillcolor="#c1c0f7"] ;
16 -> 52 ;
53 [label="Na_to_K <= 9.638\ngini = 0.643\nsamples = 14\nvalue = [1, 2, 7, 4, 0]\nclass = drugC", fillcolor="#c4f7ee"] ;
52 -> 53 ;
54 [label="gini = 0.0\nsamples = 1\nvalue = [0, 1, 0, 0, 0]\nclass = drugB", fillcolor="#7be539"] ;
53 -> 54 ;
55 [label="Cholesterol <= 0.5\ngini = 0.604\nsamples = 13\nvalue = [1, 1, 7, 4, 0]\nclass = drugC", fillcolor="#bdf6ec"] ;
53 -> 55 ;
56 [label="BP_LOW <= 0.5\ngini = 0.562\nsamples = 8\nvalue = [1, 1, 5, 1, 0]\nclass = drugC", fillcolor="#8ef0de"] ;
55 -> 56 ;
57 [label="Na_to_K <= 10.711\ngini = 0.667\nsamples = 3\nvalue = [1, 1, 1, 0, 0]\nclass = drugA", fillcolor="#ffffff"] ;
56 -> 57 ;
58 [label="gini = 0.0\nsamples = 1\nvalue = [0, 0, 1, 0, 0]\nclass = drugC", fillcolor="#39e5c5"] ;
57 -> 58 ;
59 [label="Age <= 62.5\ngini = 0.5\nsamples = 2\nvalue = [1, 1, 0, 0, 0]\nclass = drugA", fillcolor="#ffffff"] ;
57 -> 59 ;
60 [label="gini = 0.0\nsamples = 1\nvalue = [0, 1, 0, 0, 0]\nclass = drugB", fillcolor="#7be539"] ;
59 -> 60 ;
61 [label="gini = 0.0\nsamples = 1\nvalue = [1, 0, 0, 0, 0]\nclass = drugA", fillcolor="#e58139"] ;
59 -> 61 ;
62 [label="Sex <= 0.5\ngini = 0.32\nsamples = 5\nvalue = [0, 0, 4, 1, 0]\nclass = drugC", fillcolor="#6aecd4"] ;
56 -> 62 ;
63 [label="Na_to_K <= 11.304\ngini = 0.5\nsamples = 2\nvalue = [0, 0, 1, 1, 0]\nclass = drugC", fillcolor="#ffffff"] ;
62 -> 63 ;
64 [label="gini = 0.0\nsamples = 1\nvalue = [0, 0, 0, 1, 0]\nclass = drugX", fillcolor="#3c39e5"] ;
63 -> 64 ;
65 [label="gini = 0.0\nsamples = 1\nvalue = [0, 0, 1, 0, 0]\nclass = drugC", fillcolor="#39e5c5"] ;
63 -> 65 ;
66 [label="gini = 0.0\nsamples = 3\nvalue = [0, 0, 3, 0, 0]\nclass = drugC", fillcolor="#39e5c5"] ;
62 -> 66 ;
67 [label="Sex <= 0.5\ngini = 0.48\nsamples = 5\nvalue = [0, 0, 2, 3, 0]\nclass = drugX", fillcolor="#bebdf6"] ;
55 -> 67 ;
68 [label="gini = 0.0\nsamples = 1\nvalue = [0, 0, 1, 0, 0]\nclass = drugC", fillcolor="#39e5c5"] ;
67 -> 68 ;
69 [label="Age <= 56.0\ngini = 0.375\nsamples = 4\nvalue = [0, 0, 1, 3, 0]\nclass = drugX", fillcolor="#7d7bee"] ;
67 -> 69 ;
70 [label="gini = 0.0\nsamples = 2\nvalue = [0, 0, 0, 2, 0]\nclass = drugX", fillcolor="#3c39e5"] ;
69 -> 70 ;
71 [label="Na_to_K <= 10.595\ngini = 0.5\nsamples = 2\nvalue = [0, 0, 1, 1, 0]\nclass = drugC", fillcolor="#ffffff"] ;
69 -> 71 ;
72 [label="gini = 0.0\nsamples = 1\nvalue = [0, 0, 1, 0, 0]\nclass = drugC", fillcolor="#39e5c5"] ;
71 -> 72 ;
73 [label="gini = 0.0\nsamples = 1\nvalue = [0, 0, 0, 1, 0]\nclass = drugX", fillcolor="#3c39e5"] ;
71 -> 73 ;
74 [label="Na_to_K <= 13.007\ngini = 0.492\nsamples = 16\nvalue = [2, 2, 1, 11, 0]\nclass = drugX", fillcolor="#8280ee"] ;
52 -> 74 ;
75 [label="gini = 0.0\nsamples = 7\nvalue = [0, 0, 0, 7, 0]\nclass = drugX", fillcolor="#3c39e5"] ;
74 -> 75 ;
76 [label="Na_to_K <= 13.345\ngini = 0.691\nsamples = 9\nvalue = [2, 2, 1, 4, 0]\nclass = drugX", fillcolor="#c7c6f8"] ;
74 -> 76 ;
77 [label="BP_LOW <= 0.5\ngini = 0.5\nsamples = 2\nvalue = [1, 0, 1, 0, 0]\nclass = drugA", fillcolor="#ffffff"] ;
76 -> 77 ;
78 [label="gini = 0.0\nsamples = 1\nvalue = [1, 0, 0, 0, 0]\nclass = drugA", fillcolor="#e58139"] ;
77 -> 78 ;
79 [label="gini = 0.0\nsamples = 1\nvalue = [0, 0, 1, 0, 0]\nclass = drugC", fillcolor="#39e5c5"] ;
77 -> 79 ;
80 [label="Cholesterol <= 0.5\ngini = 0.571\nsamples = 7\nvalue = [1, 2, 0, 4, 0]\nclass = drugX", fillcolor="#b1b0f5"] ;
76 -> 80 ;
81 [label="Na_to_K <= 13.954\ngini = 0.5\nsamples = 2\nvalue = [1, 1, 0, 0, 0]\nclass = drugA", fillcolor="#ffffff"] ;
80 -> 81 ;
82 [label="gini = 0.0\nsamples = 1\nvalue = [0, 1, 0, 0, 0]\nclass = drugB", fillcolor="#7be539"] ;
81 -> 82 ;
83 [label="gini = 0.0\nsamples = 1\nvalue = [1, 0, 0, 0, 0]\nclass = drugA", fillcolor="#e58139"] ;
81 -> 83 ;
84 [label="Age <= 65.0\ngini = 0.32\nsamples = 5\nvalue = [0, 1, 0, 4, 0]\nclass = drugX", fillcolor="#6d6aec"] ;
80 -> 84 ;
85 [label="gini = 0.0\nsamples = 4\nvalue = [0, 0, 0, 4, 0]\nclass = drugX", fillcolor="#3c39e5"] ;
84 -> 85 ;
86 [label="gini = 0.0\nsamples = 1\nvalue = [0, 1, 0, 0, 0]\nclass = drugB", fillcolor="#7be539"] ;
84 -> 86 ;
87 [label="gini = 0.0\nsamples = 4\nvalue = [4, 0, 0, 0, 0]\nclass = drugA", fillcolor="#e58139"] ;
1 -> 87 ;
88 [label="gini = 0.0\nsamples = 68\nvalue = [0, 0, 0, 0, 68]\nclass = drugY", fillcolor="#e539c0"] ;
0 -> 88 [labeldistance=2.5, labelangle=-45, headlabel="False"] ;
}
